0,1,-6
0,2,-5
1,0,-6
1,3,-11
2,0,-5
2,4,-12
3,1,-11
3,5,-17
4,2,-12
4,6,-20
5,3,-17
5,14,-26
6,4,-20
6,20,-25
7,8,-20
7,10,-22
8,7,-20
8,9,-23
9,8,-23
9,11,-26
10,7,-22
10,17,-28
11,9,-26
11,18,-39
12,13,-19
12,14,-25
13,12,-19
13,15,-17
14,5,-26
14,12,-25
14,34,-37
15,13,-17
15,16,-12
16,15,-12
16,17,-22
17,10,-28
17,16,-22
17,35,-32
18,11,-39
18,19,-38
18,49,-61
19,18,-38
19,21,-20
20,6,-25
20,22,-21
20,33,-34
21,19,-20
21,23,-10
22,20,-21
23,21,-10
23,24,-5
24,23,-5
24,25,-24
25,24,-24
25,26,-39
25,65,-42
26,25,-39
26,27,-34
27,26,-34
27,28,-32
28,27,-32
28,29,-32
29,28,-32
29,30,-29
30,29,-29
30,31,-26
31,30,-26
31,32,-30
32,31,-30
32,40,-50
33,20,-34
33,34,-39
33,57,-31
34,14,-37
34,33,-39
34,46,-35
35,17,-32
35,44,-29
35,48,-39
36,42,-44
36,43,-46
37,38,-44
37,41,-46
38,37,-44
38,39,-41
39,38,-41
39,42,-39
40,32,-50
40,41,-56
40,61,-59
41,37,-46
41,40,-56
42,36,-44
42,39,-39
43,36,-46
43,50,-38
44,35,-29
44,45,-25
44,52,-15
45,44,-25
45,47,-20
46,34,-35
46,47,-23
46,66,-30
47,45,-20
47,46,-23
47,59,-14
48,35,-39
48,49,-58
48,69,-41
49,18,-61
49,48,-58
49,64,-58
50,43,-38
50,51,-32
51,50,-32
51,54,-30
52,44,-15
52,53,-9
53,52,-9
53,68,-18
54,51,-30
54,55,-30
55,54,-30
55,63,-30
56,57,-12
56,58,-5
57,33,-31
57,56,-12
57,71,-29
58,56,-5
58,73,-18
59,47,-14
59,62,-12
60,78,-6
61,40,-59
61,76,-50
62,59,-12
62,67,-8
63,55,-30
63,83,-30
64,49,-58
64,65,-44
64,98,-58
65,25,-42
65,64,-44
65,86,-42
66,46,-30
66,70,-26
66,71,-32
67,62,-8
67,70,-13
68,53,-18
68,69,-29
68,74,-20
69,48,-41
69,68,-29
69,97,-40
70,66,-26
70,67,-13
70,81,-22
71,57,-29
71,66,-32
71,96,-34
72,73,-21
72,78,-11
73,58,-18
73,72,-21
73,99,-26
74,68,-20
74,75,-15
75,74,-15
75,77,-15
76,61,-50
76,87,-46
77,75,-15
77,79,-33
78,60,-6
78,72,-11
79,77,-33
79,113,-53
80,93,-15
81,70,-22
81,82,-21
82,81,-21
82,91,-20
83,63,-30
83,84,-28
84,83,-28
84,103,-26
85,89,-7
85,100,-11
86,65,-42
86,87,-43
86,142,-43
87,76,-46
87,86,-43
87,136,-45
88,90,-15
88,114,-23
89,85,-7
89,94,-3
90,88,-15
90,92,-16
91,82,-20
91,95,-22
92,90,-16
92,93,-22
93,80,-15
93,92,-22
93,101,-33
94,89,-3
95,91,-22
95,96,-29
95,106,-24
96,71,-34
96,95,-29
96,135,-34
97,69,-40
97,98,-57
97,118,-48
98,64,-58
98,97,-57
98,140,-59
99,73,-26
99,110,-26
100,85,-11
100,105,-19
100,112,-7
101,93,-33
101,102,-32
101,170,-53
102,101,-32
102,105,-24
103,84,-26
103,104,-26
104,103,-26
104,108,-26
105,100,-19
105,102,-24
105,190,-32
106,95,-24
106,126,-24
107,109,-24
107,120,-34
108,104,-26
108,137,-27
109,107,-24
110,99,-26
110,131,-26
111,130,-20
112,100,-7
112,119,-2
113,79,-53
113,114,-43
113,132,-54
114,88,-23
114,113,-43
114,177,-45
115,116,-47
115,127,-49
116,115,-47
116,117,-45
117,116,-45
117,120,-44
118,97,-48
118,132,-51
118,184,-57
119,112,-2
119,121,-1
120,107,-34
120,117,-44
120,133,-53
121,119,-1
121,122,-8
122,121,-8
122,129,-17
123,157,-27
124,125,-5
124,128,-14
125,124,-5
125,127,-27
126,106,-24
126,153,-33
127,115,-49
127,125,-27
127,155,-71
128,124,-14
128,130,-26
129,122,-17
129,151,-18
130,111,-20
130,128,-26
130,164,-44
131,110,-26
131,145,-26
132,113,-54
132,118,-51
132,196,-54
133,120,-53
133,134,-49
133,168,-72
134,133,-49
134,139,-35
135,96,-34
135,144,-38
135,153,-38
136,87,-45
136,150,-46
137,108,-27
137,138,-28
138,137,-28
138,162,-28
139,134,-35
139,141,-38
140,98,-59
140,143,-44
140,174,-36
141,139,-38
141,146,-34
142,86,-43
142,143,-42
142,195,-44
143,140,-44
143,142,-42
143,182,-43
144,135,-38
144,145,-34
144,229,-60
145,131,-26
145,144,-34
146,141,-34
146,147,-27
147,146,-27
147,148,-28
148,147,-28
148,149,-28
149,148,-28
149,159,-51
150,136,-46
150,171,-41
151,129,-18
151,173,-19
152,154,-10
153,126,-33
153,135,-38
153,183,-62
154,152,-10
154,187,-12
155,127,-71
155,167,-79
155,194,-91
156,172,-9
157,123,-27
157,158,-41
157,215,-59
158,157,-41
158,161,-44
159,149,-51
159,160,-61
159,189,-78
160,159,-61
160,161,-48
161,158,-44
161,160,-48
162,138,-28
162,163,-28
163,162,-28
163,197,-46
164,130,-44
164,165,-44
164,202,-58
165,164,-44
165,166,-29
166,165,-29
166,169,-21
167,155,-79
167,168,-74
167,182,-56
168,133,-72
168,167,-74
168,188,-79
169,166,-21
169,172,-13
170,101,-53
170,178,-65
170,193,-61
171,150,-41
171,207,-35
172,156,-9
172,169,-13
172,176,-11
173,151,-19
173,179,-11
173,191,-27
174,140,-36
174,185,-33
174,203,-49
175,199,-9
176,172,-11
176,180,-14
177,114,-45
177,178,-64
177,222,-59
178,170,-65
178,177,-64
178,221,-52
179,173,-11
179,181,-2
180,176,-14
180,200,-18
181,179,-2
181,192,-7
182,143,-43
182,167,-56
182,204,-37
183,153,-62
183,186,-74
183,228,-90
184,118,-57
184,185,-52
184,196,-60
185,174,-33
185,184,-52
185,249,-80
186,183,-74
186,187,-40
186,243,-60
187,154,-12
187,186,-40
187,199,-13
188,168,-79
188,189,-79
188,242,-60
189,159,-78
189,188,-79
189,265,-64
190,105,-32
190,191,-36
190,193,-48
191,173,-27
191,190,-36
191,247,-33
192,181,-7
192,198,-12
193,170,-61
193,190,-48
193,271,-63
194,155,-91
194,201,-57
194,203,-82
195,142,-44
195,204,-36
195,208,-43
196,132,-54
196,184,-60
196,237,-59
197,163,-46
197,216,-72
197,235,-50
198,192,-12
198,205,-13
199,175,-9
199,187,-13
199,218,-9
200,180,-18
200,206,-20
201,194,-57
201,202,-41
201,288,-30
202,164,-58
202,201,-41
202,258,-59
203,174,-49
203,194,-82
203,250,-84
204,182,-37
204,195,-36
204,241,-28
205,198,-13
205,214,-16
206,200,-20
206,226,-23
207,171,-35
207,208,-38
207,225,-33
208,195,-43
208,207,-38
208,283,-41
209,220,-19
210,211,-19
210,221,-27
211,210,-19
211,212,-22
212,211,-22
212,213,-22
213,212,-22
213,217,-23
214,205,-16
214,230,-18
215,157,-59
215,216,-78
215,266,-62
216,197,-72
216,215,-78
216,303,-61
217,213,-23
217,219,-23
218,199,-9
218,224,-6
219,217,-23
219,254,-33
220,209,-19
220,221,-34
220,223,-21
221,178,-52
221,210,-27
221,220,-34
222,177,-59
222,236,-54
222,300,-60
223,220,-21
223,227,-12
224,218,-6
225,207,-33
225,238,-32
226,206,-23
226,239,-13
226,264,-35
227,223,-12
227,231,-14
228,183,-90
228,229,-88
228,260,-94
229,144,-60
229,228,-88
229,232,-74
230,214,-18
230,233,-9
230,234,-18
231,227,-14
231,248,-16
232,229,-74
232,267,-71
233,230,-9
234,230,-18
234,251,-9
234,262,-22
235,197,-50
235,244,-37
236,222,-54
236,237,-56
236,317,-51
237,196,-59
237,236,-56
237,276,-49
238,225,-32
238,245,-35
239,226,-13
240,257,-19
241,204,-28
241,242,-36
241,284,-14
242,188,-60
242,241,-36
242,286,-36
243,186,-60
243,246,-55
244,235,-37
244,252,-41
245,238,-35
245,321,-42
246,243,-55
246,259,-58
247,191,-33
247,261,-30
247,302,-33
248,231,-16
248,308,-28
249,185,-80
249,250,-106
249,277,-114
250,203,-84
250,249,-106
250,287,-73
251,234,-9
252,244,-41
252,253,-28
252,274,-41
253,252,-28
254,219,-33
254,257,-39
254,270,-48
255,256,-8
255,273,-23
256,255,-8
257,240,-19
257,254,-39
257,273,-36
258,202,-59
258,263,-60
258,294,-44
259,246,-58
259,260,-75
259,272,-39
260,228,-94
260,259,-75
260,324,-85
261,247,-30
261,262,-27
261,322,-31
262,234,-22
262,261,-27
262,282,-19
263,258,-60
263,264,-53
263,361,-52
264,226,-35
264,263,-53
264,293,-25
265,189,-64
265,266,-47
265,286,-37
266,215,-62
266,265,-47
266,351,-46
267,232,-71
267,268,-54
267,328,-70
268,267,-54
268,281,-48
269,290,-6
270,254,-48
270,271,-60
270,350,-37
271,193,-63
271,270,-60
271,301,-56
272,259,-39
272,278,-13
273,255,-23
273,257,-36
273,275,-36
274,252,-41
274,285,-22
275,273,-36
275,299,-27
276,237,-49
276,277,-74
276,327,-30
277,249,-114
277,276,-74
277,336,-104
278,272,-13
278,279,-8
279,278,-8
279,280,-9
280,279,-9
280,289,-8
281,268,-48
281,312,-55
282,262,-19
282,334,-12
283,208,-41
283,284,-20
283,319,-46
284,241,-14
284,283,-20
284,341,-9
285,274,-22
285,292,-13
286,242,-36
286,265,-37
286,342,-27
287,250,-73
287,288,-44
287,337,-58
288,201,-30
288,287,-44
288,294,-32
289,280,-8
289,291,-8
290,269,-6
290,316,-18
291,289,-8
291,295,-10
292,285,-13
292,304,-27
293,264,-25
293,297,-8
294,258,-44
294,288,-32
294,385,-28
295,291,-10
295,325,-28
296,314,-10
297,293,-8
297,311,-14
298,299,-14
299,275,-27
299,298,-14
299,306,-20
300,222,-60
300,309,-77
300,317,-57
301,271,-56
301,302,-39
301,394,-38
302,247,-33
302,301,-39
302,322,-34
303,216,-61
303,304,-38
303,340,-36
304,292,-27
304,303,-38
305,332,-43
306,299,-20
306,313,-21
307,310,-20
307,320,-25
308,248,-28
308,309,-65
308,316,-35
309,300,-77
309,308,-65
309,468,-94
310,307,-20
310,312,-37
311,297,-14
311,318,-16
312,281,-55
312,310,-37
312,348,-39
313,306,-21
313,349,-23
314,296,-10
314,339,-14
315,368,-33
316,290,-18
316,308,-35
316,357,-36
317,236,-51
317,300,-57
317,326,-47
318,311,-16
318,333,-17
319,283,-46
319,323,-61
319,371,-37
320,307,-25
320,321,-40
320,390,-34
321,245,-42
321,320,-40
321,323,-58
322,261,-31
322,302,-34
322,360,-36
323,319,-61
323,321,-58
324,260,-85
324,325,-63
324,353,-74
325,295,-28
325,324,-63
325,369,-58
326,317,-47
326,327,-33
326,396,-40
327,276,-30
327,326,-33
327,379,-26
328,267,-70
328,347,-51
328,354,-83
329,330,-46
329,332,-53
330,329,-46
330,331,-45
331,330,-45
331,344,-39
332,305,-43
332,329,-53
332,343,-49
333,318,-17
333,355,-19
334,282,-12
334,335,-12
334,362,-21
335,334,-12
335,339,-14
336,277,-104
336,337,-81
336,380,-90
337,287,-58
337,336,-81
337,415,-53
338,345,-20
338,357,-33
339,314,-14
339,335,-14
339,381,-17
340,303,-36
340,346,-29
340,370,-17
341,284,-9
341,342,-22
341,378,-37
342,286,-27
342,341,-22
342,433,-33
343,332,-49
343,358,-33
344,331,-39
344,366,-34
345,338,-20
346,340,-29
346,352,-40
347,328,-51
347,348,-31
347,407,-33
348,312,-39
348,347,-31
348,435,-28
349,313,-23
349,350,-23
349,375,-20
350,270,-37
350,349,-23
350,393,-25
351,266,-46
351,352,-48
351,412,-50
352,346,-40
352,351,-48
352,401,-45
353,324,-74
353,354,-83
353,466,-56
354,328,-83
354,353,-83
354,422,-83
355,333,-19
355,403,-33
356,381,-11
357,316,-36
357,338,-33
357,372,-42
358,343,-33
358,359,-25
359,358,-25
359,363,-23
360,322,-36
360,362,-34
360,419,-39
361,263,-52
361,384,-40
361,386,-44
362,334,-21
362,360,-34
362,424,-33
363,359,-23
363,376,-25
364,365,-19
364,373,-34
365,364,-19
365,382,-12
366,344,-34
366,367,-20
366,387,-34
367,366,-20
368,315,-33
368,369,-62
368,383,-65
369,325,-58
369,368,-62
369,465,-66
370,340,-17
371,319,-37
371,377,-22
372,357,-42
372,397,-37
373,364,-34
373,374,-55
374,373,-55
374,383,-68
375,349,-20
375,392,-17
376,363,-25
376,421,-25
377,371,-22
377,378,-39
378,341,-37
378,377,-39
378,420,-47
379,327,-26
379,380,-56
379,405,-38
380,336,-90
380,379,-56
380,460,-76
381,339,-17
381,356,-11
381,388,-16
382,365,-12
383,368,-65
383,374,-68
383,450,-59
384,361,-40
384,402,-36
384,432,-31
385,294,-28
385,386,-36
385,416,-38
386,361,-44
386,385,-36
386,431,-39
387,366,-34
387,389,-32
388,381,-16
388,439,-16
389,387,-32
389,395,-32
390,320,-34
390,426,-34
391,392,-11
391,399,-2
392,375,-17
392,391,-11
392,449,-21
393,350,-25
393,394,-30
393,492,-28
394,301,-38
394,393,-30
394,462,-37
395,389,-32
395,398,-32
396,326,-40
396,404,-41
396,444,-34
397,372,-37
397,427,-34
398,395,-32
398,457,-44
399,391,-2
400,401,-23
401,352,-45
401,400,-23
401,406,-34
402,384,-36
402,403,-41
402,501,-40
403,355,-33
403,402,-41
403,437,-46
404,396,-41
404,405,-46
404,408,-40
405,379,-38
405,404,-46
405,489,-42
406,401,-34
406,410,-26
407,347,-33
407,408,-33
407,458,-47
408,404,-40
408,407,-33
408,423,-34
409,410,-22
409,413,-21
410,406,-26
410,409,-22
411,418,-20
412,351,-50
412,434,-53
412,451,-51
413,409,-21
413,414,-17
414,413,-17
414,429,-19
415,337,-53
415,416,-45
415,461,-53
416,385,-38
416,415,-45
416,517,-51
417,418,-30
417,430,-36
417,453,-32
418,411,-20
418,417,-30
419,360,-39
419,442,-41
419,463,-49
420,378,-47
420,455,-45
421,376,-25
421,425,-16
421,428,-18
422,354,-83
422,423,-51
422,491,-62
423,408,-34
423,422,-51
423,470,-29
424,362,-33
424,440,-37
424,495,-36
425,421,-16
425,430,-21
426,390,-34
426,436,-31
427,397,-34
427,481,-46
428,421,-18
428,456,-21
428,512,-15
429,414,-19
429,441,-21
429,451,-35
430,417,-36
430,425,-21
430,493,-30
431,386,-39
431,432,-30
431,498,-37
432,384,-31
432,431,-30
432,440,-32
433,342,-33
433,434,-45
433,467,-48
434,412,-53
434,433,-45
434,533,-40
435,348,-28
435,436,-28
435,458,-45
436,426,-31
436,435,-28
436,499,-28
437,403,-46
437,438,-46
437,531,-36
438,437,-46
438,443,-43
439,388,-16
439,479,-18
440,424,-37
440,432,-32
440,442,-40
441,429,-21
441,445,-14
442,419,-41
442,440,-40
442,506,-29
443,438,-43
443,459,-32
444,396,-34
444,469,-34
444,470,-28
445,441,-14
445,446,-13
446,445,-13
446,448,-16
447,448,-16
447,484,-21
448,446,-16
448,447,-16
449,392,-21
449,452,-27
449,454,-20
450,383,-59
450,478,-35
451,412,-51
451,429,-35
451,488,-46
452,449,-27
452,453,-27
452,483,-22
453,417,-32
453,452,-27
453,476,-17
454,449,-20
455,420,-45
455,467,-54
456,428,-21
456,457,-42
456,515,-35
457,398,-44
457,456,-42
457,487,-55
458,407,-47
458,435,-45
458,496,-61
459,443,-32
459,464,-24
460,380,-76
460,461,-67
460,490,-53
461,415,-53
461,460,-67
461,541,-70
462,394,-37
462,463,-50
462,536,-36
463,419,-49
463,462,-50
463,509,-45
464,459,-24
464,514,-29
465,369,-66
465,466,-53
465,503,-48
466,353,-56
466,465,-53
466,494,-46
467,433,-48
467,455,-54
467,511,-49
468,309,-94
468,469,-67
468,482,-86
469,444,-34
469,468,-67
469,574,-40
470,423,-29
470,444,-28
470,500,-28
471,472,-40
471,480,-33
472,471,-40
472,485,-42
473,474,-22
473,525,-22
474,473,-22
474,480,-27
475,477,-8
476,453,-17
476,477,-10
477,475,-8
477,476,-10
478,450,-35
478,504,-30
479,439,-18
479,507,-26
480,471,-33
480,474,-27
481,427,-46
481,482,-65
481,510,-47
482,468,-86
482,481,-65
482,600,-62
483,452,-22
483,486,-13
484,447,-21
484,485,-35
484,488,-36
485,472,-42
485,484,-35
485,561,-54
486,483,-13
487,457,-55
487,497,-53
488,451,-46
488,484,-36
488,530,-48
489,405,-42
489,490,-37
489,496,-49
490,460,-53
490,489,-37
490,548,-42
491,422,-62
491,494,-52
491,500,-44
492,393,-28
492,493,-28
492,535,-23
493,430,-30
493,492,-28
493,542,-28
494,466,-46
494,491,-52
494,570,-40
495,424,-36
495,501,-40
495,508,-30
496,458,-61
496,489,-49
496,550,-53
497,487,-53
497,502,-52
498,431,-37
498,505,-42
498,516,-32
499,436,-28
499,528,-32
500,470,-28
500,491,-44
500,573,-28
501,402,-40
501,495,-40
501,539,-48
502,497,-52
502,513,-54
503,465,-48
503,504,-33
503,592,-31
504,478,-30
504,503,-33
504,527,-31
505,498,-42
505,506,-30
505,577,-42
506,442,-29
506,505,-30
506,509,-24
507,479,-26
507,508,-29
507,551,-32
508,495,-30
508,507,-29
508,627,-27
509,463,-45
509,506,-24
509,568,-33
510,481,-47
510,521,-37
511,467,-49
511,529,-42
512,428,-15
512,515,-29
512,543,-28
513,502,-54
513,526,-48
514,464,-29
514,518,-34
514,532,-22
515,456,-35
515,512,-29
515,563,-51
516,498,-32
516,517,-39
516,578,-25
517,416,-51
517,516,-39
517,557,-51
518,514,-34
518,519,-27
519,518,-27
519,522,-20
520,524,-26
521,510,-37
521,524,-40
522,519,-20
522,523,-19
523,522,-19
523,525,-23
524,520,-26
524,521,-40
524,580,-47
525,473,-22
525,523,-23
525,562,-33
526,513,-48
526,545,-44
527,504,-31
527,552,-24
528,499,-32
528,553,-36
529,511,-42
529,582,-39
530,488,-48
530,534,-37
530,569,-59
531,437,-36
531,537,-19
531,540,-27
532,514,-22
532,538,-11
533,434,-40
533,534,-27
533,560,-28
534,530,-37
534,533,-27
534,625,-35
535,492,-23
535,536,-24
535,632,-20
536,462,-36
536,535,-24
536,586,-41
537,531,-19
537,538,-12
538,532,-11
538,537,-12
539,501,-48
539,540,-40
539,575,-43
540,531,-27
540,539,-40
541,461,-70
541,549,-59
541,558,-73
542,493,-28
542,543,-34
542,633,-20
543,512,-28
543,542,-34
543,576,-53
544,567,-16
545,526,-44
545,547,-37
545,556,-43
546,579,-20
547,545,-37
548,490,-42
548,549,-45
548,594,-47
549,541,-59
549,548,-45
549,603,-43
550,496,-53
550,554,-44
550,593,-45
551,507,-32
551,555,-30
552,527,-24
552,640,-31
553,528,-36
553,554,-39
553,583,-25
554,550,-44
554,553,-39
554,677,-49
555,551,-30
555,566,-32
556,545,-43
556,559,-34
557,517,-51
557,558,-59
557,650,-48
558,541,-73
558,557,-59
558,610,-64
559,556,-34
559,565,-36
560,533,-28
560,581,-17
560,604,-38
561,485,-54
561,562,-51
561,569,-66
562,525,-33
562,561,-51
562,619,-32
563,515,-51
563,564,-52
563,576,-63
564,563,-52
564,565,-43
564,646,-30
565,559,-36
565,564,-43
566,555,-32
566,567,-28
566,676,-31
567,544,-16
567,566,-28
567,588,-17
568,509,-33
568,584,-34
568,585,-34
569,530,-59
569,561,-66
569,626,-63
570,494,-40
570,571,-20
570,597,-36
571,570,-20
571,572,-8
571,617,-6
572,571,-8
572,591,-13
573,500,-28
573,574,-34
573,597,-32
574,469,-40
574,573,-34
574,612,-52
575,539,-43
575,590,-31
576,543,-53
576,563,-63
576,716,-55
577,505,-42
577,578,-33
577,584,-37
578,516,-25
578,577,-33
578,649,-28
579,546,-20
579,580,-45
579,602,-40
580,524,-47
580,579,-45
580,596,-36
581,560,-17
581,582,-22
581,654,-10
582,529,-39
582,581,-22
582,606,-36
583,553,-25
583,599,-20
584,568,-34
584,577,-37
584,671,-37
585,568,-34
585,586,-43
585,665,-24
586,536,-41
586,585,-43
586,658,-52
587,589,-13
588,567,-17
588,598,-11
589,587,-13
589,595,-18
590,575,-31
590,628,-20
591,572,-13
591,592,-23
591,644,-17
592,503,-31
592,591,-23
592,639,-25
593,550,-45
593,594,-45
593,678,-45
594,548,-47
594,593,-45
594,624,-46
595,589,-18
595,615,-20
596,580,-36
596,601,-17
596,707,-40
597,570,-36
597,573,-32
597,662,-30
598,588,-11
598,605,-8
599,583,-20
599,672,-34
600,482,-62
600,601,-31
600,613,-50
601,596,-17
601,600,-31
601,690,-33
602,579,-40
602,607,-36
603,549,-43
603,609,-44
603,622,-39
604,560,-38
604,629,-52
604,653,-49
605,598,-8
605,611,-9
606,582,-36
606,608,-28
607,602,-36
607,635,-27
608,606,-28
608,621,-20
609,603,-44
609,610,-51
609,660,-43
610,558,-64
610,609,-51
610,692,-56
611,605,-9
611,643,-13
612,574,-52
612,613,-55
612,744,-57
613,600,-50
613,612,-55
613,731,-44
614,618,-4
615,595,-20
615,616,-23
616,615,-23
616,620,-27
617,571,-6
617,618,-4
618,614,-4
618,617,-4
618,623,-4
619,562,-32
619,634,-26
620,616,-27
620,651,-32
621,608,-20
621,673,-23
622,603,-39
622,624,-40
622,664,-41
623,618,-4
623,636,-4
624,594,-46
624,622,-40
624,712,-53
625,534,-35
625,626,-52
625,629,-50
626,569,-63
626,625,-52
626,728,-74
627,508,-27
627,628,-21
627,680,-32
628,590,-20
628,627,-21
628,685,-9
629,604,-52
629,625,-50
629,660,-48
630,631,-6
631,630,-6
631,638,-6
631,648,-16
632,535,-20
632,633,-17
632,667,-22
633,542,-20
633,632,-17
633,715,-23
634,619,-26
634,666,-26
635,607,-27
635,659,-18
636,623,-4
636,657,-7
637,644,-14
638,631,-6
639,592,-25
639,640,-33
639,699,-19
640,552,-31
640,639,-33
640,641,-49
641,640,-49
641,688,-48
642,643,-9
642,647,-10
643,611,-13
643,642,-9
643,704,-19
644,591,-17
644,637,-14
644,663,-14
645,685,-5
646,564,-30
646,648,-20
646,720,-19
647,642,-10
647,655,-16
648,631,-16
648,646,-20
648,655,-20
649,578,-28
649,650,-39
649,723,-31
650,557,-48
650,649,-39
650,691,-48
651,620,-32
651,652,-22
651,656,-35
652,651,-22
653,604,-49
653,654,-30
653,664,-48
654,581,-10
654,653,-30
654,726,-15
655,647,-16
655,648,-20
656,651,-35
656,669,-30
657,636,-7
657,661,-12
658,586,-52
658,667,-37
658,711,-57
659,635,-18
659,686,-25
660,609,-43
660,629,-48
660,697,-59
661,657,-12
661,662,-17
661,694,-9
662,597,-30
662,661,-17
662,709,-36
663,644,-14
663,675,-13
664,622,-41
664,653,-48
664,713,-40
665,585,-24
665,670,-10
665,710,-17
666,634,-26
666,668,-32
667,632,-22
667,658,-37
667,753,-26
668,666,-32
668,681,-41
669,656,-30
669,706,-27
670,665,-10
670,671,-23
670,742,-23
671,584,-37
671,670,-23
671,722,-44
672,599,-34
672,683,-51
672,684,-35
673,621,-23
673,674,-29
673,745,-27
674,673,-29
674,693,-32
675,663,-13
675,682,-14
676,566,-31
676,679,-36
676,703,-26
677,554,-49
677,678,-51
677,683,-58
678,593,-45
678,677,-51
678,734,-57
679,676,-36
679,680,-39
679,779,-36
680,627,-32
680,679,-39
680,730,-21
681,668,-41
681,687,-44
682,675,-14
682,695,-17
683,672,-51
683,677,-58
683,769,-60
684,672,-35
684,689,-34
685,628,-9
685,645,-5
686,659,-25
686,700,-38
687,681,-44
687,701,-47
688,641,-48
688,717,-46
689,684,-34
689,696,-35
690,601,-33
690,719,-52
690,725,-51
691,650,-48
691,692,-51
691,772,-59
692,610,-56
692,691,-51
692,697,-65
693,674,-32
693,739,-33
694,661,-9
695,682,-17
695,698,-18
696,689,-35
696,724,-40
697,660,-59
697,692,-65
697,757,-80
698,695,-18
698,699,-16
699,639,-19
699,698,-16
699,746,-24
700,686,-38
700,702,-52
701,687,-47
701,729,-61
702,700,-52
702,708,-66
703,676,-26
703,704,-24
703,801,-21
704,643,-19
704,703,-24
704,736,-24
705,706,-27
705,714,-21
706,669,-27
706,705,-27
706,721,-19
707,596,-40
707,708,-63
707,719,-54
708,702,-66
708,707,-63
708,764,-48
709,662,-36
709,733,-58
710,665,-17
710,711,-41
710,719,-35
711,658,-57
711,710,-41
711,752,-65
712,624,-53
712,713,-46
712,735,-66
713,664,-40
713,712,-46
713,741,-27
714,705,-21
714,740,-24
715,633,-23
715,716,-39
715,785,-36
716,576,-55
716,715,-39
716,720,-33
717,688,-46
717,718,-44
717,760,-41
718,717,-44
718,724,-44
719,690,-52
719,707,-54
719,710,-35
720,646,-19
720,716,-33
720,736,-23
721,706,-19
721,727,-10
722,671,-44
722,723,-40
722,751,-58
723,649,-31
723,722,-40
723,773,-34
724,696,-40
724,718,-44
724,792,-45
725,690,-51
725,732,-38
725,742,-44
726,654,-15
726,741,-20
726,747,-23
727,721,-10
727,738,-14
728,626,-74
728,729,-81
728,758,-88
729,701,-61
729,728,-81
729,765,-45
730,680,-21
730,749,-20
731,613,-44
731,732,-33
731,750,-29
732,725,-38
732,731,-33
732,822,-23
733,709,-58
733,737,-54
733,756,-42
734,678,-57
734,735,-70
734,778,-71
735,712,-66
735,734,-70
735,795,-60
736,704,-24
736,720,-23
736,832,-19
737,733,-54
737,743,-44
738,727,-14
738,755,-19
739,693,-33
739,740,-33
739,768,-37
740,714,-24
740,739,-33
740,825,-42
741,713,-27
741,726,-20
741,796,-30
742,670,-23
742,725,-44
742,751,-54
743,737,-44
743,744,-49
743,844,-34
744,612,-57
744,743,-49
744,750,-37
745,673,-27
745,748,-28
745,767,-34
746,699,-24
746,754,-29
747,726,-23
747,748,-28
747,811,-25
748,745,-28
748,747,-28
749,730,-20
749,775,-29
750,731,-29
750,744,-37
750,821,-15
751,722,-58
751,742,-54
751,835,-75
752,711,-65
752,753,-49
752,783,-67
753,667,-26
753,752,-49
753,782,-32
754,746,-29
754,761,-24
754,771,-15
755,738,-19
755,763,-21
756,733,-42
757,697,-80
757,758,-85
757,776,-75
758,728,-88
758,757,-85
758,857,-62
759,760,-26
759,762,-24
760,717,-41
760,759,-26
760,810,-24
761,754,-24
761,762,-25
762,759,-24
762,761,-25
762,812,-22
763,755,-21
763,780,-23
764,708,-48
764,766,-19
765,729,-45
765,770,-21
766,764,-19
766,787,-18
767,745,-34
767,768,-40
768,739,-37
768,767,-40
768,814,-35
769,683,-60
769,777,-60
769,793,-63
770,765,-21
770,786,-24
771,754,-15
772,691,-59
772,774,-53
772,776,-68
773,723,-34
773,774,-36
773,851,-57
774,772,-53
774,773,-36
774,858,-33
775,749,-29
775,781,-39
776,757,-75
776,772,-68
776,875,-62
777,769,-60
777,778,-67
777,853,-62
778,734,-71
778,777,-67
778,848,-72
779,679,-36
779,781,-40
779,802,-20
780,763,-23
780,803,-19
780,826,-33
781,775,-39
781,779,-40
781,836,-56
782,753,-32
782,784,-25
782,816,-25
783,752,-67
783,790,-55
783,805,-44
784,782,-25
784,785,-27
785,715,-36
785,784,-27
785,823,-32
786,770,-24
786,791,-23
787,766,-18
787,788,-35
787,807,-16
788,787,-35
788,789,-44
789,788,-44
789,790,-44
790,783,-55
790,789,-44
791,786,-23
791,794,-19
792,724,-45
792,793,-53
792,818,-29
793,769,-63
793,792,-53
793,888,-52
794,791,-19
794,809,-17
795,735,-60
795,796,-43
795,849,-47
796,741,-30
796,795,-43
796,815,-43
797,798,-9
797,799,-4
798,797,-9
798,800,-17
799,797,-4
799,816,-11
800,798,-17
800,804,-20
801,703,-21
801,802,-15
801,833,-21
802,779,-20
802,801,-15
802,871,-12
803,780,-19
803,808,-13
804,800,-20
804,805,-22
805,783,-44
805,804,-22
806,807,-6
807,787,-16
807,806,-6
808,803,-13
808,859,-11
809,794,-17
809,865,-24
810,760,-24
810,817,-15
811,747,-25
811,813,-26
812,762,-22
812,819,-16
813,811,-26
813,815,-39
814,768,-35
814,820,-38
815,796,-43
815,813,-39
815,872,-39
816,782,-25
816,799,-11
816,829,-13
817,810,-15
817,818,-16
818,792,-29
818,817,-16
818,892,-17
819,812,-16
819,830,-13
820,814,-38
820,854,-49
821,750,-15
821,827,-17
821,831,-12
822,732,-23
822,827,-21
822,834,-29
823,785,-32
823,828,-23
824,847,-8
825,740,-42
825,826,-47
825,854,-52
826,780,-33
826,825,-47
826,869,-35
827,821,-17
827,822,-21
827,904,-26
828,823,-23
828,838,-20
829,816,-13
829,839,-8
830,819,-13
830,837,-5
831,821,-12
831,845,-16
831,863,-18
832,736,-19
832,833,-19
832,846,-16
833,801,-21
833,832,-19
833,878,-22
834,822,-29
834,835,-61
834,915,-42
835,751,-75
835,834,-61
835,850,-78
836,781,-56
836,855,-63
837,830,-5
838,828,-20
838,840,-15
839,829,-8
839,841,-5
840,838,-15
840,842,-9
841,839,-5
842,840,-9
842,846,-13
843,844,-24
843,852,-17
844,743,-34
844,843,-24
844,845,-21
845,831,-16
845,844,-21
845,873,-23
846,832,-16
846,842,-13
847,824,-8
847,852,-10
848,778,-72
848,849,-58
848,880,-65
849,795,-47
849,848,-58
849,908,-44
850,835,-78
850,851,-76
850,926,-61
851,773,-57
851,850,-76
851,882,-73
852,843,-17
852,847,-10
852,886,-6
853,777,-62
853,856,-60
853,879,-58
854,820,-49
854,825,-52
854,885,-43
855,836,-63
855,861,-48
855,870,-62
856,853,-60
856,867,-44
856,889,-44
857,758,-62
857,864,-40
857,891,-27
858,774,-33
858,877,-36
858,883,-45
859,808,-11
859,860,-10
859,869,-19
860,859,-10
860,862,-10
861,855,-48
861,868,-30
862,860,-10
862,866,-10
863,831,-18
863,867,-27
863,893,-22
864,857,-40
864,865,-36
864,946,-38
865,809,-24
865,864,-36
865,876,-25
866,862,-10
866,876,-15
867,856,-44
867,863,-27
867,873,-30
868,861,-30
868,874,-31
869,826,-35
869,859,-19
869,933,-29
870,855,-62
870,871,-35
870,900,-56
871,802,-12
871,870,-35
871,896,-7
872,815,-39
872,887,-34
873,845,-23
873,867,-30
873,903,-40
874,868,-31
874,897,-35
875,776,-62
875,881,-51
875,890,-49
876,865,-25
876,866,-15
876,948,-19
877,858,-36
877,881,-43
877,901,-39
878,833,-22
878,884,-22
879,853,-58
879,880,-56
879,893,-37
880,848,-65
880,879,-56
880,923,-39
881,875,-51
881,877,-43
881,916,-35
882,851,-73
882,883,-64
882,930,-49
883,858,-45
883,882,-64
883,900,-57
884,878,-22
884,894,-21
885,854,-43
885,913,-30
886,852,-6
886,898,-2
887,872,-34
887,909,-48
888,793,-52
888,889,-35
888,920,-36
889,856,-44
889,888,-35
889,903,-42
890,875,-49
890,891,-28
890,941,-35
891,857,-27
891,890,-28
891,950,-25
892,818,-17
892,921,-16
893,863,-22
893,879,-37
893,905,-19
894,884,-21
894,895,-12
895,894,-12
895,896,-4
896,871,-7
896,895,-4
896,912,-2
897,874,-35
897,899,-22
897,901,-37
898,886,-2
898,902,-11
899,897,-22
900,870,-56
900,883,-57
900,918,-34
901,877,-39
901,897,-37
902,898,-11
902,906,-25
903,873,-40
903,889,-42
903,911,-53
904,827,-26
904,905,-22
904,914,-37
905,893,-19
905,904,-22
905,964,-14
906,902,-25
906,907,-36
907,906,-36
907,910,-42
908,849,-44
908,909,-50
908,924,-38
909,887,-48
909,908,-50
909,937,-59
910,907,-42
910,911,-48
911,903,-53
911,910,-48
911,942,-34
912,896,-2
912,917,-5
913,885,-30
913,934,-29
914,904,-37
914,915,-45
914,977,-43
915,834,-42
915,914,-45
915,925,-44
916,881,-35
916,922,-22
917,912,-5
917,919,-8
918,900,-34
918,919,-11
918,939,-19
919,917,-8
919,918,-11
920,888,-36
920,921,-25
920,959,-35
921,892,-16
921,920,-25
921,951,-16
922,916,-22
922,927,-15
923,880,-39
923,924,-26
923,965,-13
924,908,-38
924,923,-26
924,987,-36
925,915,-44
925,926,-46
925,969,-38
926,850,-61
926,925,-46
926,936,-30
927,922,-15
927,928,-11
928,927,-11
928,940,-11
929,931,-14
929,935,-16
930,882,-49
930,936,-21
930,943,-32
931,929,-14
931,932,-16
932,931,-16
932,933,-24
933,869,-29
933,932,-24
933,938,-28
934,913,-29
934,935,-25
934,953,-33
935,929,-16
935,934,-25
936,926,-30
936,930,-21
937,909,-59
937,995,-70
938,933,-28
938,944,-26
939,918,-19
939,943,-29
940,928,-11
940,941,-21
941,890,-35
941,940,-21
941,955,-26
942,911,-34
942,952,-14
943,930,-32
943,939,-29
943,963,-22
944,938,-26
944,945,-18
945,944,-18
945,947,-10
946,864,-38
946,949,-39
946,961,-24
947,945,-10
947,948,-14
948,876,-19
948,947,-14
948,956,-14
949,946,-39
949,950,-39
949,988,-49
950,891,-25
950,949,-39
950,954,-35
951,921,-16
951,966,-16
952,942,-14
952,957,-14
953,934,-33
953,967,-32
954,950,-35
954,955,-29
954,976,-26
955,941,-26
955,954,-29
956,948,-14
956,962,-10
957,952,-14
957,958,-16
958,957,-16
958,959,-27
959,920,-35
959,958,-27
959,985,-28
960,963,-8
961,946,-24
961,962,-12
961,984,-25
962,956,-10
962,961,-12
963,943,-22
963,960,-8
964,905,-14
964,965,-10
964,978,-22
965,923,-13
965,964,-10
965,986,-18
966,951,-16
966,974,-16
967,953,-32
967,968,-16
968,967,-16
969,925,-38
969,970,-32
970,969,-32
970,971,-28
971,970,-28
971,972,-22
972,971,-22
972,973,-19
973,972,-19
973,975,-16
974,966,-16
974,1011,-27
975,973,-16
975,979,-17
976,954,-26
976,980,-14
977,914,-43
977,978,-36
977,983,-41
978,964,-22
978,977,-36
978,1004,-32
979,975,-17
979,983,-31
980,976,-14
980,981,-12
981,980,-12
981,982,-12
982,981,-12
982,990,-26
983,977,-41
983,979,-31
983,993,-39
984,961,-25
984,989,-48
985,959,-28
985,991,-20
986,965,-18
986,987,-33
986,1023,-34
987,924,-36
987,986,-33
987,992,-39
988,949,-49
988,989,-57
988,990,-47
989,984,-48
989,988,-57
989,1008,-61
990,982,-26
990,988,-47
990,999,-36
991,985,-20
991,994,-20
992,987,-39
992,1001,-46
992,1020,-38
993,983,-39
993,998,-29
994,991,-20
994,1007,-25
995,937,-70
995,997,-68
995,1001,-66
996,997,-50
996,1000,-44
997,995,-68
997,996,-50
997,1062,-34
998,993,-29
999,990,-36
999,1002,-30
1000,996,-44
1000,1049,-46
1001,992,-46
1001,995,-66
1001,1039,-41
1002,999,-30
1002,1003,-28
1003,1002,-28
1003,1009,-27
1004,978,-32
1004,1006,-26
1004,1012,-30
1005,1006,-15
1006,1004,-26
1006,1005,-15
1007,994,-25
1007,1010,-26
1007,1035,-24
1008,989,-61
1008,1013,-59
1009,1003,-27
1009,1014,-29
1009,1018,-23
1010,1007,-26
1010,1011,-30
1011,974,-27
1011,1010,-30
1011,1019,-38
1012,1004,-30
1012,1017,-29
1013,1008,-59
1013,1016,-54
1014,1009,-29
1014,1015,-44
1014,1020,-34
1015,1014,-44
1015,1016,-54
1015,1036,-46
1016,1013,-54
1016,1015,-54
1017,1012,-29
1017,1021,-30
1018,1009,-23
1018,1026,-18
1019,1011,-38
1019,1034,-37
1020,992,-38
1020,1014,-34
1020,1027,-35
1021,1017,-30
1021,1024,-31
1022,1032,-6
1023,986,-34
1023,1025,-38
1023,1029,-33
1024,1021,-31
1024,1025,-34
1025,1023,-38
1025,1024,-34
1026,1018,-18
1026,1028,-16
1027,1020,-35
1027,1031,-28
1027,1033,-26
1028,1026,-16
1028,1033,-17
1029,1023,-33
1029,1030,-24
1030,1029,-24
1030,1031,-22
1031,1027,-28
1031,1030,-22
1032,1022,-6
1032,1035,-13
1033,1027,-26
1033,1028,-17
1034,1019,-37
1034,1041,-45
1035,1007,-24
1035,1032,-13
1036,1015,-46
1036,1037,-35
1036,1038,-21
1037,1036,-35
1037,1040,-34
1038,1036,-21
1039,1001,-41
1039,1040,-32
1039,1046,-22
1040,1037,-34
1040,1039,-32
1041,1034,-45
1041,1042,-52
1041,1061,-36
1042,1041,-52
1042,1043,-50
1043,1042,-50
1043,1044,-59
1044,1043,-59
1044,1045,-65
1044,1067,-43
1045,1044,-65
1045,1047,-52
1046,1039,-22
1046,1048,-14
1047,1045,-52
1047,1050,-46
1048,1046,-14
1048,1052,-12
1049,1000,-46
1049,1057,-49
1049,1066,-28
1050,1047,-46
1050,1054,-54
1051,1053,-49
1051,1059,-62
1052,1048,-12
1052,1058,-8
1053,1051,-49
1053,1056,-40
1054,1050,-54
1054,1055,-60
1055,1054,-60
1055,1059,-62
1056,1053,-40
1056,1057,-47
1057,1049,-49
1057,1056,-47
1057,1070,-29
1058,1052,-8
1058,1060,-7
1059,1051,-62
1059,1055,-62
1060,1058,-7
1060,1063,-10
1061,1041,-36
1062,997,-34
1062,1063,-12
1062,1065,-10
1063,1060,-10
1063,1062,-12
1064,1065,-11
1064,1066,-11
1064,1068,-10
1065,1062,-10
1065,1064,-11
1066,1049,-28
1066,1064,-11
1067,1044,-43
1068,1064,-10
1068,1069,-6
1069,1068,-6
1070,1057,-29
1070,1071,-4
1070,1072,-8
1071,1070,-4
1072,1070,-8
